{
  "gelu_cheb": [
    6.048316478729248,
    8.094460487365723,
    1.3715124130249023,
    -0.7407752871513367,
    0.13477398455142975,
    0.12601926922798157,
    -0.23956909775733948
  ],
  "gelu_domain": [
    -5.0,
    15.0
  ],
  "seq_len": 32,
  "d_model": 4,
  "toeplitz_K": 16,
  "conv_weight": [
    [
      -0.2940143942832947
    ],
    [
      -0.2537952661514282
    ],
    [
      0.45950543880462646
    ],
    [
      -0.1345420479774475
    ]
  ],
  "conv_bias": -0.1053285002708435,
  "decoder_weight": [
    -0.32356685400009155,
    0.4714598059654236,
    -0.11136466264724731,
    -0.08978098630905151
  ],
  "decoder_bias": 0.39177900552749634,
  "out_expected": 0.4559810161590576,
  "channels": [
    {
      "x": [
        1.764052345967664,
        1.8675579901499675,
        -0.10321885179355784,
        0.7610377251469934,
        1.4940790731576061,
        -2.5529898158340787,
        2.2697546239876076,
        1.5327792143584575,
        -0.8877857476301128,
        1.2302906807277207,
        -1.0485529650670926,
        -0.5096521817516535,
        -1.6138978475579515,
        -0.510805137568873,
        0.06651722238316789,
        -0.672460447775951,
        0.17742614225375283,
        -0.9072983643832422,
        1.1394006845433007,
        -0.8707971491818818,
        -1.1651498407833565,
        1.4882521937955997,
        -1.0707526215105425,
        0.2082749780768603,
        0.010500020720820478,
        1.8831506970562544,
        -1.17312340511416,
        1.9229420264803847,
        -0.8612256850547025,
        0.947251967773748,
        0.37642553115562943,
        -0.6945678597313655
      ],
      "coeffs": [
        -0.026515930891036987,
        -0.021995909512043,
        -0.0643424317240715,
        -0.07454852759838104,
        -0.0006978735327720642,
        0.07705334573984146,
        0.06312483549118042,
        -0.005961466580629349,
        -0.02411705255508423,
        0.0251473356038332,
        0.06317399442195892,
        0.039566121995449066,
        -0.01936393231153488,
        -0.06955898553133011,
        -0.08908119052648544,
        -0.06634704023599625
      ],
      "D": 1.5409960746765137,
      "y_skip_expected": [
        2.6716222505662155,
        2.789577557673627,
        -0.3109049556936234,
        0.903176188460451,
        2.1121999407162355,
        -3.8059653998875906,
        3.5961158590032376,
        2.4232110313588646,
        -1.3365636358093014,
        1.7798312493567663,
        -1.6198462863130185,
        -0.5911843275767859,
        -2.163715535083643,
        -0.6289172642235862,
        0.004668368896465991,
        -1.2372116996066957,
        0.11138476349671447,
        -1.470395416560141,
        1.6568598056605368,
        -1.3464925276116921,
        -1.9095055420042921,
        1.870951308552666,
        -1.794435448480027,
        0.3140310614668246,
        0.021601790763987213,
        2.989220837556194,
        -1.641100657576113,
        2.994684869868747,
        -1.3583439089393967,
        1.4218859353674693,
        0.631702766683719,
        -1.0072316722300676
      ],
      "y_act": [
        -0.1869579702615738,
        -0.23516975343227386,
        -0.07705157995223999,
        -0.16665779054164886,
        -0.20300479233264923,
        -0.09663594514131546,
        -0.18861223757266998,
        -0.16961918771266937,
        0.04185235872864723,
        -0.05287427827715874,
        0.3497436046600342,
        0.29214155673980713,
        0.2434091418981552,
        -0.013764112256467342,
        0.12322061508893967,
        0.2546828091144562,
        0.32821810245513916,
        -0.05795592814683914,
        -0.2348969280719757,
        0.0677904337644577,
        -0.060201141983270645,
        -0.18863777816295624,
        0.03628995269536972,
        -0.16628369688987732,
        -0.09926789999008179,
        -0.005144697148352861,
        0.12937861680984497,
        -0.17923161387443542,
        0.05554012954235077,
        -0.2252528965473175,
        -0.1786787360906601,
        0.03892610967159271
      ]
    },
    {
      "x": [
        0.4001572083672233,
        -0.977277879876411,
        0.41059850193837233,
        0.12167501649282841,
        -0.20515826376580087,
        0.6536185954403606,
        -1.4543656745987648,
        1.469358769900285,
        -1.980796468223927,
        1.2023798487844113,
        -1.4200179371789752,
        -0.4380743016111864,
        -0.2127402802139687,
        -1.180632184122412,
        0.3024718977397814,
        -0.3595531615405413,
        -0.4017809362082619,
        0.05194539579613895,
        -1.2348258203536526,
        -0.5788496647644155,
        0.9008264869541871,
        1.8958891760305832,
        1.0544517269311366,
        0.9766390364837128,
        1.7858704939058352,
        -1.3477590611424464,
        1.9436211856492926,
        1.4805147914344243,
        1.9100649530990337,
        -0.1550100930908342,
        -1.0994007905841945,
        -0.14963454032767076
      ],
      "coeffs": [
        0.09401393681764603,
        0.16055475175380707,
        0.02802247181534767,
        0.07440740615129471,
        0.03401494771242142,
        -0.049571096897125244,
        -0.06699809432029724,
        0.0826621949672699,
        0.018897168338298798,
        0.07735825330018997,
        -0.11079155653715134,
        0.017565354704856873,
        -0.15961506962776184,
        -0.10361331701278687,
        0.005755163729190826,
        -0.011801064014434814
      ],
      "D": -0.293428897857666,
      "y_skip_expected": [
        -0.07979733411643299,
        0.2591309715927238,
        -0.2275726975719964,
        0.04404863995848806,
        0.012847728580253091,
        -0.18239754436934538,
        0.43386977904110774,
        -0.4411281473393218,
        0.5250507009278449,
        -0.5541599488726788,
        0.35980195412288407,
        -0.04363416171824616,
        -0.08797544468372367,
        0.10850658760861065,
        -0.05619539143708249,
        -0.35052435593419773,
        0.43491396212496347,
        -0.586144839363104,
        0.7366688105203086,
        -0.4407680079355184,
        -0.12864119693672665,
        -0.24699926346136175,
        0.03250583394313861,
        0.49054906344593396,
        0.08498056557060352,
        0.8576371757792762,
        -0.5507019272807566,
        -0.05718070936377928,
        0.13641856211168268,
        0.5867022699910867,
        0.7023011680792326,
        0.314217026071815
      ],
      "y_act": [
        0.11427263915538788,
        -0.12670938670635223,
        0.10057413578033447,
        -0.06105288118124008,
        -0.12350090593099594,
        -0.1375037580728531,
        -0.07924620062112808,
        -0.0004386909422464669,
        0.08673785626888275,
        0.13632994890213013,
        0.328395813703537,
        0.3113296627998352,
        0.28225448727607727,
        0.10304319113492966,
        0.20388799905776978,
        0.17637047171592712,
        0.30181747674942017,
        -0.07853882759809494,
        -0.1925130933523178,
        0.10655578970909119,
        -0.13384197652339935,
        -0.05584239587187767,
        0.19635109603405,
        0.007247426547110081,
        0.07622718065977097,
        0.46088477969169617,
        0.11284076422452927,
        0.010284973308444023,
        0.10298674553632736,
        -0.09218700230121613,
        -0.006083216052502394,
        0.2164904922246933
      ]
    },
    {
      "x": [
        0.9787379841057392,
        0.9500884175255894,
        0.144043571160878,
        0.44386323274542566,
        0.31306770165090136,
        0.8644361988595057,
        0.04575851730144607,
        0.1549474256969163,
        -0.3479121493261526,
        -0.3873268174079523,
        -1.7062701906250126,
        -1.2527953600499262,
        -0.8954665611936756,
        -0.028182228338654868,
        -0.6343220936809636,
        -0.813146282044454,
        -1.6301983469660446,
        0.7290905621775369,
        0.402341641177549,
        -0.31155253212737266,
        0.46566243973045984,
        1.1787795711596507,
        -0.40317694697317963,
        0.3563663971744019,
        0.12691209270361992,
        -1.2704849984857336,
        -0.41361898075974735,
        1.8675589604265699,
        -0.2680033709513804,
        0.6140793703460803,
        0.298238174206056,
        -0.43515355172163744
      ],
      "coeffs": [
        0.0074223484843969345,
        -0.025439677760004997,
        -0.05184607207775116,
        -0.05503067746758461,
        -0.03466280922293663,
        -0.004676731303334236,
        0.018827851861715317,
        0.028957614675164223,
        0.02985328808426857,
        0.029109304770827293,
        0.02894049510359764,
        0.02450394071638584,
        0.010491127148270607,
        -0.010884762741625309,
        -0.028792887926101685,
        -0.031464386731386185
      ],
      "D": -2.1787893772125244,
      "y_skip_expected": [
        -2.125199388451036,
        -2.0878894431186743,
        -0.3876851243735273,
        -1.0705733777856945,
        -0.7847545334006003,
        -1.9534220106827231,
        -0.15301566841479697,
        -0.36948692071090417,
        0.7480754855531975,
        0.8772817903818205,
        3.79770382756366,
        2.8915917268726483,
        2.1832483685054664,
        0.3127282476544028,
        1.5617785497998156,
        1.8501370397428107,
        3.569482192138828,
        -1.5601541453685912,
        -0.8943239711631589,
        0.5824455502326895,
        -1.1725543369070477,
        -2.7398766393889074,
        0.6819502722119661,
        -0.9128177894267547,
        -0.3404283468158453,
        2.756364118235887,
        0.9374403979096954,
        -3.9496114139336815,
        0.691502707288962,
        -1.2438053090686259,
        -0.6221688765735841,
        0.9042360835532245
      ],
      "y_act": [
        -0.15898048877716064,
        -0.2763611078262329,
        0.09382070600986481,
        -0.002040624851360917,
        -0.18083125352859497,
        0.182143434882164,
        -0.4122239053249359,
        -0.1721750944852829,
        -0.027440734207630157,
        -0.1479438692331314,
        -0.0,
        -0.07976524531841278,
        -0.0826599970459938,
        0.03511478751897812,
        -0.09876491874456406,
        -0.06911198794841766,
        -0.08376792073249817,
        0.2518572509288788,
        -0.2176821082830429,
        0.07122528553009033,
        0.22666887938976288,
        -0.10660763829946518,
        0.02811092883348465,
        0.011612467467784882,
        0.04619874060153961,
        -0.05248955264687538,
        0.04272177442908287,
        -0.2530646324157715,
        0.019767340272665024,
        -0.13139988481998444,
        -0.06429526209831238,
        -0.025336699560284615
      ]
    },
    {
      "x": [
        2.240893199201458,
        -0.1513572082976979,
        1.454273506962975,
        0.33367432737426683,
        -0.8540957393017248,
        -0.7421650204064419,
        -0.1871838500258336,
        0.37816251960217356,
        0.15634896910398005,
        -0.30230275057533557,
        1.9507753952317897,
        0.7774903558319101,
        0.386902497859262,
        0.42833187053041766,
        -0.3627411659871381,
        -1.7262826023316769,
        0.4627822555257742,
        0.12898291075741067,
        -0.6848100909403132,
        0.05616534222974544,
        -1.5362436862772237,
        -0.17992483581235091,
        1.2224450703824274,
        0.7065731681919482,
        0.40198936344470165,
        0.9693967081580112,
        -0.7474548114407578,
        0.9060446582753853,
        0.8024563957963952,
        0.9222066715665268,
        1.3263858966870303,
        1.8492637284793418
      ],
      "coeffs": [
        -0.039758797734975815,
        0.003822941333055496,
        0.01698770746588707,
        -0.024092622101306915,
        -0.08345165848731995,
        -0.10308514535427094,
        -0.06751074641942978,
        -0.019529439508914948,
        -0.007592085748910904,
        -0.02776983007788658,
        -0.030793974176049232,
        0.014491654932498932,
        0.07910152524709702,
        0.10483341664075851,
        0.07060576230287552,
        0.014876078814268112
      ],
      "D": 0.5684312582015991,
      "y_skip_expected": [
        1.1846985212647576,
        -0.07145158448591293,
        0.806323361520214,
        0.1254038249516715,
        -0.6089161676256198,
        -0.6433680565942149,
        -0.38138764668344766,
        -0.004126581491323611,
        0.0234465817827494,
        -0.11031593258593589,
        1.0911379737014428,
        0.4583317911604128,
        0.35054001386445177,
        0.44447107477700665,
        -0.04131068922754627,
        -0.9503898837675001,
        0.03451796013031122,
        -0.2362980539224199,
        -0.5209826876352537,
        0.05978071631595515,
        -0.7324643301095197,
        -0.011658662968582797,
        0.7939523520071573,
        0.7229206146329152,
        0.7136016655392059,
        0.8719713494728294,
        -0.36505518616123667,
        0.22283898012516862,
        0.07570502871782975,
        0.29391070772040584,
        0.6282440295366476,
        0.7998131715905861
      ],
      "y_act": [
        -0.17054298520088196,
        -0.3058648109436035,
        0.028001731261610985,
        -0.059066884219646454,
        -0.20935215055942535,
        0.01213501300662756,
        -0.5661793947219849,
        -0.20250259339809418,
        -0.11081802099943161,
        -0.22124812006950378,
        -0.37873363494873047,
        -0.28151214122772217,
        -0.17444247007369995,
        -0.042198505252599716,
        -0.17231443524360657,
        -0.15341530740261078,
        -0.48512136936187744,
        0.06607022881507874,
        -0.24288390576839447,
        -0.013909504748880863,
        0.01944788545370102,
        -0.12448209524154663,
        -0.03230268508195877,
        -0.05530192703008652,
        -0.017833800986409187,
        -0.8721582293510437,
        -0.04164399206638336,
        -0.3279624581336975,
        -0.0677373856306076,
        -0.16010846197605133,
        -0.11262384057044983,
        -0.08096639811992645
      ]
    }
  ]
}